#include "mnist.hpp"

const float depth1_w[KERNEL1 * KERNEL1 * CH1] = {
  0.5456099510192871,
  0.26015371084213257,
  0.3711143136024475,
  0.4124138057231903,
  0.25634080171585083,
  0.2884768843650818,
  0.7178897857666016,
  0.4711519181728363,
  0.3882441818714142
};
const float point1_w[CH2 * CH1] = {
  1.1882678270339966,
  1.2830075025558472,
  1.1550288200378418,
  0.8032196164131165
};
const float depth2_w[KERNEL1 * KERNEL1 * CH2] = {
  0.7695828676223755,
  0.210073783993721,
  0.22216889262199402,
  0.24813485145568848,
  0.04934437945485115,
  0.34858438372612,
  0.954632043838501,
  0.6690763235092163,
  0.2469271421432495,
  0.5898600816726685,
  -0.050272781401872635,
  -0.4320716857910156,
  -0.24053077399730682,
  -1.0617198944091797,
  -0.9087251424789429,
  -0.13197296857833862,
  0.5238655209541321,
  0.6153091788291931,
  0.0827290490269661,
  -0.026213908568024635,
  -0.2591293454170227,
  0.8464651703834534,
  0.7005665302276611,
  0.008523223921656609,
  -0.41888827085494995,
  0.21864406764507294,
  0.9017384648323059,
  -0.29621317982673645,
  -0.6145676970481873,
  -0.14634878933429718,
  -0.8310744166374207,
  0.009508324787020683,
  0.3521857261657715,
  0.7980779409408569,
  0.9152435064315796,
  0.7255610227584839
};
const float point2_w[CH3 * CH2] = {
  0.5159546136856079,
  0.7150652408599854,
  0.6289461851119995,
  0.18363097310066223,
  0.07456620037555695,
  -0.9547994136810303,
  0.20522631704807281,
  0.12701013684272766,
  0.4576564431190491,
  -1.0254790782928467,
  0.25406908988952637,
  0.4064505398273468,
  0.5637097954750061,
  0.03774813935160637,
  -0.18321233987808228,
  1.393341064453125,
  0.12224936485290527,
  -0.20662005245685577,
  1.0576488971710205,
  -0.12346937507390976,
  0.7066927552223206,
  -0.1996537148952484,
  -0.8852354288101196,
  0.4145369827747345,
  -0.17141392827033997,
  -0.9654369354248047,
  0.17635048925876617,
  -1.5867940187454224,
  0.3631002604961395,
  0.8169786930084229,
  -1.0489013195037842,
  -0.6661373972892761,
  1.0391359329223633,
  -0.08735880255699158,
  0.4643888771533966,
  -0.8377705812454224,
  0.3982986807823181,
  -0.6613291501998901,
  -0.6052024960517883,
  -0.8490803241729736,
  1.0769176483154297,
  0.20923320949077606,
  0.5199506878852844,
  1.0600463151931763,
  0.7651554346084595,
  0.34546521306037903,
  0.7675405144691467,
  -0.0975681245326995
};
const float depth3_w[KERNEL2 * KERNEL2 * CH3] = {
  -0.4136185348033905,
  0.029404690489172935,
  -0.28833356499671936,
  -0.33893463015556335,
  0.4901254177093506,
  -0.555865466594696,
  0.33110156655311584,
  -0.7524014115333557,
  -0.8522370457649231,
  -0.3366943299770355,
  0.557080864906311,
  -0.7526096701622009,
  0.10126379132270813,
  -0.5728912353515625,
  -1.0226227045059204,
  2.27783465385437,
  0.17154455184936523,
  -0.26823166012763977,
  -0.4775233268737793,
  1.2181315422058105,
  -0.20651906728744507,
  0.42592036724090576,
  0.16722938418388367,
  -0.04859117418527603,
  -0.756260335445404,
  0.30521729588508606,
  -0.4744037091732025,
  2.195582628250122,
  -1.7871946096420288,
  0.35446691513061523,
  0.2116023302078247,
  1.4914854764938354,
  0.3742181062698364,
  -0.8069807887077332,
  0.11727622151374817,
  0.4971252381801605,
  0.056895773857831955,
  0.2588406503200531,
  0.6721075773239136,
  -0.4534741938114166,
  0.742011308670044,
  -0.8075627684593201,
  -0.07394802570343018,
  -0.7616286277770996,
  1.1044392585754395,
  -0.44248831272125244,
  1.022004246711731,
  -0.8786460161209106,
  -0.5148292779922485,
  0.8415568470954895,
  0.5970178246498108,
  0.15453384816646576,
  -1.9773998260498047,
  0.15872864425182343,
  -0.4025801420211792,
  -0.020138859748840332,
  2.0543994903564453,
  -0.07459069043397903,
  0.6844045519828796,
  -0.4201142489910126,
  0.08102528750896454,
  -1.9194656610488892,
  -1.843144416809082,
  -0.09463752806186676,
  -0.7532774209976196,
  0.17724990844726562,
  -0.11431783437728882,
  -0.34749093651771545,
  0.4976853132247925,
  -0.4137739837169647,
  0.4158370792865753,
  -2.2430496215820312,
  -0.4085244834423065,
  -0.00819341465830803,
  -0.22568760812282562,
  0.30811598896980286,
  -0.9540045261383057,
  0.9775408506393433,
  1.7749519348144531,
  0.3191092908382416,
  0.17538484930992126,
  1.3759163618087769,
  0.08133360743522644,
  -0.8079659938812256,
  0.23975278437137604,
  -0.4543352723121643,
  0.7195779085159302,
  0.9502822160720825,
  -0.21985827386379242,
  0.08625539392232895,
  0.09693985432386398,
  0.052687499672174454,
  -0.9603836536407471,
  0.5477840900421143,
  0.8140535354614258,
  -0.2525763213634491,
  -0.22400014102458954,
  0.4602750539779663,
  0.4832193851470947,
  0.9161233901977539,
  -4.020391941070557,
  -0.6052436232566833,
  0.2280542254447937,
  -1.113857388496399,
  -2.36380672454834,
  -0.4524746239185333,
  -0.6152321696281433,
  -0.6715294122695923,
  -3.125725507736206,
  -0.8579404354095459,
  -0.3837682604789734,
  -1.5244039297103882,
  0.2027900367975235,
  1.927120327949524,
  -0.1234741061925888,
  0.6508437991142273,
  -0.48671868443489075,
  -0.4817951023578644,
  0.990784764289856,
  1.151254415512085,
  -0.06806222349405289,
  0.15695612132549286,
  0.4979386627674103,
  -0.4470565915107727,
  0.024049116298556328,
  -0.5352656245231628,
  -0.2881813049316406,
  0.20589092373847961,
  -1.0121289491653442,
  -0.139077290892601,
  -0.10259713977575302,
  -0.04216943681240082,
  -1.2640771865844727,
  -0.06497049331665039,
  -0.6108862161636353,
  0.4341835379600525,
  -1.5119229555130005,
  0.7223710417747498,
  0.3003890812397003,
  0.32949593663215637,
  -1.0606931447982788,
  -0.3226725459098816,
  -0.5829306840896606,
  0.7229181528091431,
  0.2388916313648224,
  0.669419527053833,
  1.099748969078064,
  -0.5779126286506653,
  1.1295497417449951,
  0.5012892484664917,
  -0.08581989258527756,
  1.6778554916381836,
  -0.6546189785003662,
  -0.6349160075187683,
  0.2604561150074005,
  -0.6314461827278137,
  -0.7218599319458008,
  -0.0058867307379841805,
  -0.03527941554784775,
  -1.38934326171875,
  -0.7220482230186462,
  -0.7438513040542603,
  -0.18870142102241516,
  0.7281444072723389,
  -0.5400725603103638,
  0.7357646226882935,
  0.2735445201396942,
  0.4963051676750183,
  -1.5004831552505493,
  -0.3783595561981201,
  -0.40540528297424316,
  -0.6918464303016663,
  1.9621878862380981,
  0.4514964520931244,
  1.1176965236663818,
  -0.35796812176704407,
  0.6399616003036499,
  0.5610753893852234,
  0.9074667096138,
  0.1536484807729721,
  0.07313354313373566,
  0.25225362181663513,
  0.12210927158594131,
  -0.9863262176513672,
  -1.1050304174423218,
  -0.7900459170341492,
  0.40011635422706604,
  -0.24681337177753448,
  -0.1278015673160553,
  0.02836935967206955,
  -0.27882564067840576,
  -2.2119133472442627
};
const float point3_w[CH4 * CH3] = {
  -0.366780161857605,
  -0.0018798090750351548,
  -0.46884021162986755,
  0.6473386883735657,
  0.6458858847618103,
  -0.590854287147522,
  -0.2646092474460602,
  -1.2932509183883667,
  -0.09100604802370071,
  0.47597870230674744,
  0.35621362924575806,
  -1.0686291456222534,
  0.4225533902645111,
  0.8100616931915283,
  0.21882472932338715,
  -0.6092482805252075,
  -0.03062254749238491,
  0.09456098824739456,
  1.6018035411834717,
  1.0162709951400757,
  -0.6229647397994995,
  -0.2897636294364929,
  -0.8012845516204834,
  0.5993392467498779,
  0.1612047404050827,
  0.20947983860969543,
  -0.31557509303092957,
  0.089289590716362,
  0.27662163972854614,
  0.02061050571501255,
  -0.6253795623779297,
  -0.7399741411209106,
  0.10198711603879929,
  -0.38599711656570435,
  -0.6905168294906616,
  -0.25418469309806824,
  -0.14973005652427673,
  -0.5534365773200989,
  0.34854987263679504,
  0.2081250250339508,
  0.10826123505830765,
  0.577465295791626,
  -0.6292568445205688,
  -0.6618888974189758,
  -0.4850432276725769,
  -0.33121415972709656,
  -0.3596942722797394,
  -0.003267809981480241,
  0.05377665162086487,
  -0.17853105068206787,
  0.5987772345542908,
  -0.8689526319503784,
  0.003929439932107925,
  -0.34809982776641846,
  0.12231137603521347,
  0.5658785700798035,
  1.2003780603408813,
  -0.8201938271522522,
  0.5151824355125427,
  0.8185722231864929,
  -0.6830646991729736,
  0.3455195724964142,
  0.4222777783870697,
  0.353948712348938,
  -0.772818386554718,
  -0.3425539433956146,
  -0.3005456030368805,
  0.939888596534729,
  -0.25490862131118774,
  -0.6931375861167908,
  -0.11609797179698944,
  -0.2536585330963135,
  -0.10230307281017303,
  -0.3490140736103058,
  -1.0105160474777222,
  0.2252143770456314,
  0.1818428486585617,
  0.02199392206966877,
  0.25981834530830383,
  0.0648634135723114,
  0.980664849281311,
  0.6799803972244263,
  0.25121140480041504,
  0.6222968697547913,
  -0.47902101278305054,
  0.3468781113624573,
  0.6441658735275269,
  -1.0244488716125488,
  0.41278141736984253,
  -0.9823324084281921,
  -0.49227774143218994,
  0.0434534065425396,
  -0.43617093563079834,
  0.7307067513465881,
  0.035765185952186584,
  0.32874685525894165,
  0.39100682735443115,
  1.103310465812683,
  -0.38176894187927246,
  0.09673033654689789,
  -0.572391927242279,
  0.7693233489990234,
  0.599236249923706,
  -0.7962674498558044,
  -0.017123233526945114,
  0.49294155836105347,
  0.20289826393127441,
  -0.20602060854434967,
  0.9609116315841675,
  -0.1259259432554245,
  0.3792222738265991,
  -0.57492595911026,
  0.20850688219070435,
  -0.3251408040523529,
  -0.2548632025718689,
  -0.19953511655330658,
  -0.16649211943149567,
  -0.36922353506088257,
  0.8083852529525757,
  -0.1644369661808014
};
